<?xml version="1.0"?>
<opencv_storage>
<cascade>
  <stageType>BOOST</stageType>
  <featureType>HAAR</featureType>
  <height>20</height>
  <width>20</width>
  <stageParams>
    <boostType>GAB</boostType>
    <minHitRate>9.9900001287460327e-001</minHitRate>
    <maxFalseAlarm>5.0000000000000000e-001</maxFalseAlarm>
    <weightTrimRate>9.4999999999999996e-001</weightTrimRate>
    <maxDepth>1</maxDepth>
    <maxWeakCount>100</maxWeakCount></stageParams>
  <featureParams>
    <maxCatCount>0</maxCatCount>
    <featSize>1</featSize>
    <mode>BASIC</mode></featureParams>
  <stageNum>6</stageNum>
  <stages>
    <!-- stage 0 -->
    <_>
      <maxWeakCount>3</maxWeakCount>
      <stageThreshold>-9.8567688465118408e-001</stageThreshold>
      <weakClassifiers>
        <_>
          <internalNodes>
            0 -1 25 -2.7175045013427734e-001</internalNodes>
          <leafValues>
            9.3842399120330811e-001 -8.6380332708358765e-001</leafValues></_>
        <_>
          <internalNodes>
            0 -1 21 -4.1443899273872375e-002</internalNodes>
          <leafValues>
            9.1032397747039795e-001 -7.8112351894378662e-001</leafValues></_>
        <_>
          <internalNodes>
            0 -1 4 -1.3912254571914673e-001</internalNodes>
          <leafValues>
            6.5924990177154541e-001 -9.5996028184890747e-001</leafValues></_></weakClassifiers></_>
    <!-- stage 1 -->
    <_>
      <maxWeakCount>6</maxWeakCount>
      <stageThreshold>-1.3703175783157349e+000</stageThreshold>
      <weakClassifiers>
        <_>
          <internalNodes>
            0 -1 31 -1.3622106984257698e-002</internalNodes>
          <leafValues>
            8.8957816362380981e-001 -7.2179627418518066e-001</leafValues></_>
        <_>
          <internalNodes>
            0 -1 30 -8.4611419588327408e-003</internalNodes>
          <leafValues>
            8.8382261991500854e-001 -5.3163397312164307e-001</leafValues></_>
        <_>
          <internalNodes>
            0 -1 20 -3.8264808058738708e-001</internalNodes>
          <leafValues>
            8.0506569147109985e-001 -5.3956317901611328e-001</leafValues></_>
        <_>
          <internalNodes>
            0 -1 14 2.1517733111977577e-002</internalNodes>
          <leafValues>
            -8.1717795133590698e-001 6.0989189147949219e-001</leafValues></_>
        <_>
          <internalNodes>
            0 -1 24 1.0281156748533249e-002</internalNodes>
          <leafValues>
            -6.4337193965911865e-001 5.3492045402526855e-001</leafValues></_>
        <_>
          <internalNodes>
            0 -1 7 -4.1065156459808350e-001</internalNodes>
          <leafValues>
            5.3859680891036987e-001 -6.0571658611297607e-001</leafValues></_></weakClassifiers></_>
    <!-- stage 2 -->
    <_>
      <maxWeakCount>6</maxWeakCount>
      <stageThreshold>-1.6646376848220825e+000</stageThreshold>
      <weakClassifiers>
        <_>
          <internalNodes>
            0 -1 13 -6.8747168406844139e-003</internalNodes>
          <leafValues>
            9.4517242908477783e-001 -5.5395346879959106e-001</leafValues></_>
        <_>
          <internalNodes>
            0 -1 26 -3.2630532979965210e-001</internalNodes>
          <leafValues>
            7.4958688020706177e-001 -7.7814400196075439e-001</leafValues></_>
        <_>
          <internalNodes>
            0 -1 8 1.4714688062667847e-002</internalNodes>
          <leafValues>
            -8.1692165136337280e-001 6.3518065214157104e-001</leafValues></_>
        <_>
          <internalNodes>
            0 -1 29 9.2061357572674751e-003</internalNodes>
          <leafValues>
            -5.2758425474166870e-001 8.2412916421890259e-001</leafValues></_>
        <_>
          <internalNodes>
            0 -1 17 -4.8207663930952549e-003</internalNodes>
          <leafValues>
            3.9330801367759705e-001 -9.7959798574447632e-001</leafValues></_>
        <_>
          <internalNodes>
            0 -1 5 -3.1788207590579987e-002</internalNodes>
          <leafValues>
            6.1865782737731934e-001 -6.4274054765701294e-001</leafValues></_></weakClassifiers></_>
    <!-- stage 3 -->
    <_>
      <maxWeakCount>7</maxWeakCount>
      <stageThreshold>-7.9029798507690430e-001</stageThreshold>
      <weakClassifiers>
        <_>
          <internalNodes>
            0 -1 35 -8.6850989609956741e-003</internalNodes>
          <leafValues>
            8.9919018745422363e-001 -5.7816743850708008e-001</leafValues></_>
        <_>
          <internalNodes>
            0 -1 1 9.5621794462203979e-003</internalNodes>
          <leafValues>
            -5.9741944074630737e-001 7.6419246196746826e-001</leafValues></_>
        <_>
          <internalNodes>
            0 -1 27 -4.1334307193756104e-001</internalNodes>
          <leafValues>
            7.2360455989837646e-001 -6.6865170001983643e-001</leafValues></_>
        <_>
          <internalNodes>
            0 -1 2 -6.0010015964508057e-002</internalNodes>
          <leafValues>
            4.1979092359542847e-001 -7.8700911998748779e-001</leafValues></_>
        <_>
          <internalNodes>
            0 -1 28 -6.2591740861535072e-003</internalNodes>
          <leafValues>
            6.7090332508087158e-001 -4.8800644278526306e-001</leafValues></_>
        <_>
          <internalNodes>
            0 -1 18 -1.3271709904074669e-002</internalNodes>
          <leafValues>
            3.4333094954490662e-001 -9.7947651147842407e-001</leafValues></_>
        <_>
          <internalNodes>
            0 -1 32 2.2144004702568054e-001</internalNodes>
          <leafValues>
            -3.8008469343185425e-001 9.2031300067901611e-001</leafValues></_></weakClassifiers></_>
    <!-- stage 4 -->
    <_>
      <maxWeakCount>8</maxWeakCount>
      <stageThreshold>-2.0245904922485352e+000</stageThreshold>
      <weakClassifiers>
        <_>
          <internalNodes>
            0 -1 22 -2.3233400657773018e-002</internalNodes>
          <leafValues>
            9.1801285743713379e-001 -5.0310844182968140e-001</leafValues></_>
        <_>
          <internalNodes>
            0 -1 19 -4.0815418958663940e-001</internalNodes>
          <leafValues>
            7.0681291818618774e-001 -4.9455481767654419e-001</leafValues></_>
        <_>
          <internalNodes>
            0 -1 12 3.1031719408929348e-003</internalNodes>
          <leafValues>
            -6.1903584003448486e-001 6.2005132436752319e-001</leafValues></_>
        <_>
          <internalNodes>
            0 -1 3 -3.3654156327247620e-001</internalNodes>
          <leafValues>
            5.3041195869445801e-001 -5.3302907943725586e-001</leafValues></_>
        <_>
          <internalNodes>
            0 -1 11 3.2224405556917191e-002</internalNodes>
          <leafValues>
            -7.2241878509521484e-001 3.9018580317497253e-001</leafValues></_>
        <_>
          <internalNodes>
            0 -1 33 -4.6349428594112396e-003</internalNodes>
          <leafValues>
            3.2470619678497314e-001 -6.9769269227981567e-001</leafValues></_>
        <_>
          <internalNodes>
            0 -1 9 3.5578303504735231e-004</internalNodes>
          <leafValues>
            -9.0693151950836182e-001 2.2308187186717987e-001</leafValues></_>
        <_>
          <internalNodes>
            0 -1 0 1.6628693789243698e-002</internalNodes>
          <leafValues>
            2.0956268906593323e-001 -9.1010344028472900e-001</leafValues></_></weakClassifiers></_>
    <!-- stage 5 -->
    <_>
      <maxWeakCount>7</maxWeakCount>
      <stageThreshold>-2.0759992599487305e+000</stageThreshold>
      <weakClassifiers>
        <_>
          <internalNodes>
            0 -1 36 -7.2283148765563965e-003</internalNodes>
          <leafValues>
            8.4617888927459717e-001 -5.3265821933746338e-001</leafValues></_>
        <_>
          <internalNodes>
            0 -1 23 1.9099231809377670e-002</internalNodes>
          <leafValues>
            -4.4458854198455811e-001 7.5889080762863159e-001</leafValues></_>
        <_>
          <internalNodes>
            0 -1 15 -2.6401281356811523e-001</internalNodes>
          <leafValues>
            6.3599348068237305e-001 -6.7964243888854980e-001</leafValues></_>
        <_>
          <internalNodes>
            0 -1 34 -8.6825480684638023e-003</internalNodes>
          <leafValues>
            7.4680513143539429e-001 -4.7911134362220764e-001</leafValues></_>
        <_>
          <internalNodes>
            0 -1 16 9.9835079163312912e-003</internalNodes>
          <leafValues>
            3.5276314616203308e-001 -7.0948439836502075e-001</leafValues></_>
        <_>
          <internalNodes>
            0 -1 10 3.3252783119678497e-002</internalNodes>
          <leafValues>
            -8.1375485658645630e-001 2.4674825370311737e-001</leafValues></_>
        <_>
          <internalNodes>
            0 -1 6 -1.1238180100917816e-002</internalNodes>
          <leafValues>
            2.1493364870548248e-001 -7.9464280605316162e-001</leafValues></_></weakClassifiers></_></stages>
  <features>
    <_>
      <rects>
        <_>
          0 0 1 20 -1.</_>
        <_>
          0 10 1 10 2.</_></rects>
      <tilted>0</tilted></_>
    <_>
      <rects>
        <_>
          0 0 6 6 -1.</_>
        <_>
          0 2 6 2 3.</_></rects>
      <tilted>0</tilted></_>
    <_>
      <rects>
        <_>
          0 0 20 6 -1.</_>
        <_>
          0 3 20 3 2.</_></rects>
      <tilted>0</tilted></_>
    <_>
      <rects>
        <_>
          0 1 12 15 -1.</_>
        <_>
          6 1 6 15 2.</_></rects>
      <tilted>0</tilted></_>
    <_>
      <rects>
        <_>
          0 1 14 16 -1.</_>
        <_>
          7 1 7 16 2.</_></rects>
      <tilted>0</tilted></_>
    <_>
      <rects>
        <_>
          0 1 12 4 -1.</_>
        <_>
          0 3 12 2 2.</_></rects>
      <tilted>0</tilted></_>
    <_>
      <rects>
        <_>
          0 2 8 5 -1.</_>
        <_>
          4 2 4 5 2.</_></rects>
      <tilted>0</tilted></_>
    <_>
      <rects>
        <_>
          0 2 16 18 -1.</_>
        <_>
          8 2 8 18 2.</_></rects>
      <tilted>0</tilted></_>
    <_>
      <rects>
        <_>
          0 3 6 10 -1.</_>
        <_>
          0 8 6 5 2.</_></rects>
      <tilted>0</tilted></_>
    <_>
      <rects>
        <_>
          0 3 7 14 -1.</_>
        <_>
          0 10 7 7 2.</_></rects>
      <tilted>0</tilted></_>
    <_>
      <rects>
        <_>
          0 3 14 14 -1.</_>
        <_>
          0 10 14 7 2.</_></rects>
      <tilted>0</tilted></_>
    <_>
      <rects>
        <_>
          0 3 19 10 -1.</_>
        <_>
          0 8 19 5 2.</_></rects>
      <tilted>0</tilted></_>
    <_>
      <rects>
        <_>
          0 4 4 10 -1.</_>
        <_>
          0 4 2 5 2.</_>
        <_>
          2 9 2 5 2.</_></rects>
      <tilted>0</tilted></_>
    <_>
      <rects>
        <_>
          0 4 8 3 -1.</_>
        <_>
          0 5 8 1 3.</_></rects>
      <tilted>0</tilted></_>
    <_>
      <rects>
        <_>
          0 4 8 8 -1.</_>
        <_>
          0 8 8 4 2.</_></rects>
      <tilted>0</tilted></_>
    <_>
      <rects>
        <_>
          0 7 14 11 -1.</_>
        <_>
          7 7 7 11 2.</_></rects>
      <tilted>0</tilted></_>
    <_>
      <rects>
        <_>
          0 10 9 9 -1.</_>
        <_>
          0 13 9 3 3.</_></rects>
      <tilted>0</tilted></_>
    <_>
      <rects>
        <_>
          0 11 14 1 -1.</_>
        <_>
          7 11 7 1 2.</_></rects>
      <tilted>0</tilted></_>
    <_>
      <rects>
        <_>
          0 13 14 2 -1.</_>
        <_>
          7 13 7 2 2.</_></rects>
      <tilted>0</tilted></_>
    <_>
      <rects>
        <_>
          2 0 14 19 -1.</_>
        <_>
          9 0 7 19 2.</_></rects>
      <tilted>0</tilted></_>
    <_>
      <rects>
        <_>
          2 7 18 11 -1.</_>
        <_>
          8 7 6 11 3.</_></rects>
      <tilted>0</tilted></_>
    <_>
      <rects>
        <_>
          3 1 5 9 -1.</_>
        <_>
          3 4 5 3 3.</_></rects>
      <tilted>0</tilted></_>
    <_>
      <rects>
        <_>
          3 2 3 6 -1.</_>
        <_>
          3 4 3 2 3.</_></rects>
      <tilted>0</tilted></_>
    <_>
      <rects>
        <_>
          3 2 10 4 -1.</_>
        <_>
          3 2 5 2 2.</_>
        <_>
          8 4 5 2 2.</_></rects>
      <tilted>0</tilted></_>
    <_>
      <rects>
        <_>
          4 1 16 4 -1.</_>
        <_>
          4 1 8 2 2.</_>
        <_>
          12 3 8 2 2.</_></rects>
      <tilted>0</tilted></_>
    <_>
      <rects>
        <_>
          5 0 15 19 -1.</_>
        <_>
          10 0 5 19 3.</_></rects>
      <tilted>0</tilted></_>
    <_>
      <rects>
        <_>
          5 0 15 20 -1.</_>
        <_>
          10 0 5 20 3.</_></rects>
      <tilted>0</tilted></_>
    <_>
      <rects>
        <_>
          5 1 15 19 -1.</_>
        <_>
          10 1 5 19 3.</_></rects>
      <tilted>0</tilted></_>
    <_>
      <rects>
        <_>
          5 17 9 3 -1.</_>
        <_>
          5 18 9 1 3.</_></rects>
      <tilted>0</tilted></_>
    <_>
      <rects>
        <_>
          5 18 15 2 -1.</_>
        <_>
          5 19 15 1 2.</_></rects>
      <tilted>0</tilted></_>
    <_>
      <rects>
        <_>
          6 17 13 3 -1.</_>
        <_>
          6 18 13 1 3.</_></rects>
      <tilted>0</tilted></_>
    <_>
      <rects>
        <_>
          7 0 13 2 -1.</_>
        <_>
          7 1 13 1 2.</_></rects>
      <tilted>0</tilted></_>
    <_>
      <rects>
        <_>
          8 0 8 17 -1.</_>
        <_>
          12 0 4 17 2.</_></rects>
      <tilted>0</tilted></_>
    <_>
      <rects>
        <_>
          9 8 5 12 -1.</_>
        <_>
          9 12 5 4 3.</_></rects>
      <tilted>0</tilted></_>
    <_>
      <rects>
        <_>
          9 17 7 3 -1.</_>
        <_>
          9 18 7 1 3.</_></rects>
      <tilted>0</tilted></_>
    <_>
      <rects>
        <_>
          11 0 9 3 -1.</_>
        <_>
          11 1 9 1 3.</_></rects>
      <tilted>0</tilted></_>
    <_>
      <rects>
        <_>
          12 0 6 3 -1.</_>
        <_>
          12 1 6 1 3.</_></rects>
      <tilted>0</tilted></_></features></cascade>
</opencv_storage>
